digraph Tree {
node [shape=box, style="filled, rounded", color="black", fontname=helvetica] ;
edge [fontname=helvetica] ;
0 [label="petal length (cm) <= 2.45\ngini = 0.67\nsamples = 102\nvalue = [51, 50, 49]\nclass = setosa", fillcolor="#fffefd"] ;
1 [label="gini = 0.0\nsamples = 33\nvalue = [51, 0, 0]\nclass = setosa", fillcolor="#e58139"] ;
0 -> 1 [labeldistance=2.5, labelangle=45, headlabel="True"] ;
2 [label="petal length (cm) <= 4.75\ngini = 0.5\nsamples = 69\nvalue = [0, 50, 49]\nclass = versicolor", fillcolor="#fbfefc"] ;
0 -> 2 [labeldistance=2.5, labelangle=-45, headlabel="False"] ;
3 [label="sepal length (cm) <= 4.95\ngini = 0.08\nsamples = 33\nvalue = [0, 44, 2]\nclass = versicolor", fillcolor="#42e687"] ;
2 -> 3 ;
4 [label="gini = 0.0\nsamples = 1\nvalue = [0, 0, 2]\nclass = virginica", fillcolor="#8139e5"] ;
3 -> 4 ;
5 [label="gini = 0.0\nsamples = 32\nvalue = [0, 44, 0]\nclass = versicolor", fillcolor="#39e581"] ;
3 -> 5 ;
6 [label="petal length (cm) <= 5.15\ngini = 0.2\nsamples = 36\nvalue = [0, 6, 47]\nclass = virginica", fillcolor="#9152e8"] ;
2 -> 6 ;
7 [label="sepal length (cm) <= 6.6\ngini = 0.44\nsamples = 13\nvalue = [0, 6, 12]\nclass = virginica", fillcolor="#c09cf2"] ;
6 -> 7 ;
8 [label="petal width (cm) <= 1.7\ngini = 0.26\nsamples = 10\nvalue = [0, 2, 11]\nclass = virginica", fillcolor="#985dea"] ;
7 -> 8 ;
9 [label="gini = 0.0\nsamples = 2\nvalue = [0, 2, 0]\nclass = versicolor", fillcolor="#39e581"] ;
8 -> 9 ;
10 [label="gini = 0.0\nsamples = 8\nvalue = [0, 0, 11]\nclass = virginica", fillcolor="#8139e5"] ;
8 -> 10 ;
11 [label="sepal length (cm) <= 6.8\ngini = 0.32\nsamples = 3\nvalue = [0, 4, 1]\nclass = versicolor", fillcolor="#6aeca0"] ;
7 -> 11 ;
12 [label="gini = 0.0\nsamples = 1\nvalue = [0, 1, 0]\nclass = versicolor", fillcolor="#39e581"] ;
11 -> 12 ;
13 [label="petal width (cm) <= 1.9\ngini = 0.38\nsamples = 2\nvalue = [0, 3, 1]\nclass = versicolor", fillcolor="#7beeab"] ;
11 -> 13 ;
14 [label="gini = 0.0\nsamples = 1\nvalue = [0, 3, 0]\nclass = versicolor", fillcolor="#39e581"] ;
13 -> 14 ;
15 [label="gini = 0.0\nsamples = 1\nvalue = [0, 0, 1]\nclass = virginica", fillcolor="#8139e5"] ;
13 -> 15 ;
16 [label="gini = 0.0\nsamples = 23\nvalue = [0, 0, 35]\nclass = virginica", fillcolor="#8139e5"] ;
6 -> 16 ;
}